net
{
	propagationenginegenerator1791944048146838126L = "edu.ucla.belief.approx.BeliefPropagationSettings@eb8e09e";
	recoveryenginegenerator6944530267470113528l = "edu.ucla.util.SettingsImpl@7ccf4dc";
	node_size = (130.0 55.0);
}

node A
{
	states = ("Sonnig" "Wolkig" "Regnerisch" );
	position = (57 -33);
	diagnosistype = "AUXILIARY";
	DSLxSUBMODEL = "Root Submodel";
	ismapvariable = "false";
	ID = "variable0";
	label = "Wetter";
	DSLxEXTRA_DEFINITIONxDIAGNOSIS_TYPE = "AUXILIARY";
	excludepolicy = "include whole CPT";
}
node B
{
	states = ("True" "False" );
	position = (45 -223);
	diagnosistype = "AUXILIARY";
	DSLxSUBMODEL = "Root Submodel";
	ismapvariable = "false";
	ID = "variable1";
	label = "Zahnloch";
	DSLxEXTRA_DEFINITIONxDIAGNOSIS_TYPE = "AUXILIARY";
	excludepolicy = "include whole CPT";
}
node C
{
	states = ("True" "False" );
	position = (293 -127);
	diagnosistype = "AUXILIARY";
	DSLxSUBMODEL = "Root Submodel";
	ismapvariable = "false";
	ID = "variable2";
	label = "Zahnschmerz";
	DSLxEXTRA_DEFINITIONxDIAGNOSIS_TYPE = "AUXILIARY";
	excludepolicy = "include whole CPT";
}
potential ( A | )
{
	data = (	0.4415	0.2915	0.267	);
}
potential ( B | )
{
	data = (	0.656	0.344	);
}
potential ( C | B A )
{
	data = (((	0.5710937500000001	0.42890625	)
		(	0.5710937500000001	0.42890625	)
		(	0.5710937500000001	0.42890625	))
		((	0.5710937500000001	0.42890625	)
		(	0.5710937500000001	0.42890625	)
		(	0.5710937500000001	0.42890625	)));
}
